01-1-111-1-11111-1-111-1-111-1-111-1-111-1-1-1-111-1-111-1-111-1-111-1-11111-1-111-1-111-1-111-1-111-1-1-1-111-1-111-1-111-1-111-1-11111-1-111-1-111
10-1-111-1-11111-1-111-1-111-1-111-1-111-1-1-1-111-1-111-1-111-1-111-1-11111-1-111-1-111-1-111-1-111-1-1-1-111-1-111-1-111-1-111-1-11111-1-111-1-111
-1-101-1-111-1-1-1-111-1-111-1-111-1-111-1-11111-1-111-1-111-1-111-1-111-1-1-1-111-1-111-1-111-1-111-1-11111-1-111-1-111-1-111-1-111-1-1-1-111-1-111-1-1
-1-110-1-111-1-1-1-111-1-111-1-111-1-111-1-11111-1-111-1-111-1-111-1-111-1-1-1-111-1-111-1-111-1-111-1-11111-1-111-1-111-1-111-1-111-1-1-1-111-1-111-1-1
11-1-101-1-11111-1-111-1-111-1-111-1-111-1-1-1-111-1-111-1-111-1-111-1-11111-1-111-1-111-1-111-1-111-1-1-1-111-1-111-1-111-1-111-1-11111-1-111-1-111
11-1-110-1-11111-1-111-1-111-1-111-1-111-1-1-1-111-1-111-1-111-1-111-1-11111-1-111-1-111-1-111-1-111-1-1-1-111-1-111-1-111-1-111-1-11111-1-111-1-111
-1-111-1-101-1-1-1-111-1-111-1-111-1-111-1-11111-1-111-1-111-1-111-1-111-1-1-1-111-1-111-1-111-1-111-1-11111-1-111-1-111-1-111-1-111-1-1-1-111-1-111-1-1
-1-111-1-110-1-1-1-111-1-111-1-111-1-111-1-11111-1-111-1-111-1-111-1-111-1-1-1-111-1-111-1-111-1-111-1-11111-1-111-1-111-1-111-1-111-1-1-1-111-1-111-1-1
11-1-111-1-10111-1-111-1-111-1-111-1-111-1-1-1-111-1-111-1-111-1-111-1-11111-1-111-1-111-1-111-1-111-1-1-1-111-1-111-1-111-1-111-1-11111-1-111-1-111
11-1-111-1-11011-1-111-1-111-1-111-1-111-1-1-1-111-1-111-1-111-1-111-1-11111-1-111-1-111-1-111-1-111-1-1-1-111-1-111-1-111-1-111-1-11111-1-111-1-111
11-1-111-1-11101-1-111-1-111-1-111-1-111-1-1-1-111-1-111-1-111-1-111-1-11111-1-111-1-111-1-111-1-111-1-1-1-111-1-111-1-111-1-111-1-11111-1-111-1-111
11-1-111-1-11110-1-111-1-111-1-111-1-111-1-1-1-111-1-111-1-111-1-111-1-11111-1-111-1-111-1-111-1-111-1-1-1-111-1-111-1-111-1-111-1-11111-1-111-1-111
-1-111-1-111-1-1-1-101-1-111-1-111-1-111-1-11111-1-111-1-111-1-111-1-111-1-1-1-111-1-111-1-111-1-111-1-11111-1-111-1-111-1-111-1-111-1-1-1-111-1-111-1-1
-1-111-1-111-1-1-1-110-1-111-1-111-1-111-1-11111-1-111-1-111-1-111-1-111-1-1-1-111-1-111-1-111-1-111-1-11111-1-111-1-111-1-111-1-111-1-1-1-111-1-111-1-1
11-1-111-1-11111-1-101-1-111-1-111-1-111-1-1-1-111-1-111-1-111-1-111-1-11111-1-111-1-111-1-111-1-111-1-1-1-111-1-111-1-111-1-111-1-11111-1-111-1-111
11-1-111-1-11111-1-110-1-111-1-111-1-111-1-1-1-111-1-111-1-111-1-111-1-11111-1-111-1-111-1-111-1-111-1-1-1-111-1-111-1-111-1-111-1-11111-1-111-1-111
-1-111-1-111-1-1-1-111-1-101-1-111-1-111-1-11111-1-111-1-111-1-111-1-111-1-1-1-111-1-111-1-111-1-111-1-11111-1-111-1-111-1-111-1-111-1-1-1-111-1-111-1-1
-1-111-1-111-1-1-1-111-1-110-1-111-1-111-1-11111-1-111-1-111-1-111-1-111-1-1-1-111-1-111-1-111-1-111-1-11111-1-111-1-111-1-111-1-111-1-1-1-111-1-111-1-1
11-1-111-1-11111-1-111-1-101-1-111-1-111-1-1-1-111-1-111-1-111-1-111-1-11111-1-111-1-111-1-111-1-111-1-1-1-111-1-111-1-111-1-111-1-11111-1-111-1-111
11-1-111-1-11111-1-111-1-110-1-111-1-111-1-1-1-111-1-111-1-111-1-111-1-11111-1-111-1-111-1-111-1-111-1-1-1-111-1-111-1-111-1-111-1-11111-1-111-1-111
-1-111-1-111-1-1-1-111-1-111-1-101-1-111-1-11111-1-111-1-111-1-111-1-111-1-1-1-111-1-111-1-111-1-111-1-11111-1-111-1-111-1-111-1-111-1-1-1-111-1-111-1-1
-1-111-1-111-1-1-1-111-1-111-1-110-1-111-1-11111-1-111-1-111-1-111-1-111-1-1-1-111-1-111-1-111-1-111-1-11111-1-111-1-111-1-111-1-111-1-1-1-111-1-111-1-1
11-1-111-1-11111-1-111-1-111-1-101-1-111-1-1-1-111-1-111-1-111-1-111-1-11111-1-111-1-111-1-111-1-111-1-1-1-111-1-111-1-111-1-111-1-11111-1-111-1-111
11-1-111-1-11111-1-111-1-111-1-110-1-111-1-1-1-111-1-111-1-111-1-111-1-11111-1-111-1-111-1-111-1-111-1-1-1-111-1-111-1-111-1-111-1-11111-1-111-1-111
-1-111-1-111-1-1-1-111-1-111-1-111-1-101-1-11111-1-111-1-111-1-111-1-111-1-1-1-111-1-111-1-111-1-111-1-11111-1-111-1-111-1-111-1-111-1-1-1-111-1-111-1-1
-1-111-1-111-1-1-1-111-1-111-1-111-1-110-1-11111-1-111-1-111-1-111-1-111-1-1-1-111-1-111-1-111-1-111-1-11111-1-111-1-111-1-111-1-111-1-1-1-111-1-111-1-1
11-1-111-1-11111-1-111-1-111-1-111-1-101-1-1-1-111-1-111-1-111-1-111-1-11111-1-111-1-111-1-111-1-111-1-1-1-111-1-111-1-111-1-111-1-11111-1-111-1-111
11-1-111-1-11111-1-111-1-111-1-111-1-110-1-1-1-111-1-111-1-111-1-111-1-11111-1-111-1-111-1-111-1-111-1-1-1-111-1-111-1-111-1-111-1-11111-1-111-1-111
-1-111-1-111-1-1-1-111-1-111-1-111-1-111-1-10111-1-111-1-111-1-111-1-111-1-1-1-111-1-111-1-111-1-111-1-11111-1-111-1-111-1-111-1-111-1-1-1-111-1-111-1-1
-1-111-1-111-1-1-1-111-1-111-1-111-1-111-1-11011-1-111-1-111-1-111-1-111-1-1-1-111-1-111-1-111-1-111-1-11111-1-111-1-111-1-111-1-111-1-1-1-111-1-111-1-1
-1-111-1-111-1-1-1-111-1-111-1-111-1-111-1-11101-1-111-1-111-1-111-1-111-1-1-1-111-1-111-1-111-1-111-1-11111-1-111-1-111-1-111-1-111-1-1-1-111-1-111-1-1
-1-111-1-111-1-1-1-111-1-111-1-111-1-111-1-11110-1-111-1-111-1-111-1-111-1-1-1-111-1-111-1-111-1-111-1-11111-1-111-1-111-1-111-1-111-1-1-1-111-1-111-1-1
11-1-111-1-11111-1-111-1-111-1-111-1-111-1-1-1-101-1-111-1-111-1-111-1-11111-1-111-1-111-1-111-1-111-1-1-1-111-1-111-1-111-1-111-1-11111-1-111-1-111
11-1-111-1-11111-1-111-1-111-1-111-1-111-1-1-1-110-1-111-1-111-1-111-1-11111-1-111-1-111-1-111-1-111-1-1-1-111-1-111-1-111-1-111-1-11111-1-111-1-111
-1-111-1-111-1-1-1-111-1-111-1-111-1-111-1-11111-1-101-1-111-1-111-1-111-1-1-1-111-1-111-1-111-1-111-1-11111-1-111-1-111-1-111-1-111-1-1-1-111-1-111-1-1
-1-111-1-111-1-1-1-111-1-111-1-111-1-111-1-11111-1-110-1-111-1-111-1-111-1-1-1-111-1-111-1-111-1-111-1-11111-1-111-1-111-1-111-1-111-1-1-1-111-1-111-1-1
11-1-111-1-11111-1-111-1-111-1-111-1-111-1-1-1-111-1-101-1-111-1-111-1-11111-1-111-1-111-1-111-1-111-1-1-1-111-1-111-1-111-1-111-1-11111-1-111-1-111
11-1-111-1-11111-1-111-1-111-1-111-1-111-1-1-1-111-1-110-1-111-1-111-1-11111-1-111-1-111-1-111-1-111-1-1-1-111-1-111-1-111-1-111-1-11111-1-111-1-111
-1-111-1-111-1-1-1-111-1-111-1-111-1-111-1-11111-1-111-1-101-1-111-1-111-1-1-1-111-1-111-1-111-1-111-1-11111-1-111-1-111-1-111-1-111-1-1-1-111-1-111-1-1
-1-111-1-111-1-1-1-111-1-111-1-111-1-111-1-11111-1-111-1-110-1-111-1-111-1-1-1-111-1-111-1-111-1-111-1-11111-1-111-1-111-1-111-1-111-1-1-1-111-1-111-1-1
11-1-111-1-11111-1-111-1-111-1-111-1-111-1-1-1-111-1-111-1-101-1-111-1-11111-1-111-1-111-1-111-1-111-1-1-1-111-1-111-1-111-1-111-1-11111-1-111-1-111
11-1-111-1-11111-1-111-1-111-1-111-1-111-1-1-1-111-1-111-1-110-1-111-1-11111-1-111-1-111-1-111-1-111-1-1-1-111-1-111-1-111-1-111-1-11111-1-111-1-111
-1-111-1-111-1-1-1-111-1-111-1-111-1-111-1-11111-1-111-1-111-1-101-1-111-1-1-1-111-1-111-1-111-1-111-1-11111-1-111-1-111-1-111-1-111-1-1-1-111-1-111-1-1
-1-111-1-111-1-1-1-111-1-111-1-111-1-111-1-11111-1-111-1-111-1-110-1-111-1-1-1-111-1-111-1-111-1-111-1-11111-1-111-1-111-1-111-1-111-1-1-1-111-1-111-1-1
11-1-111-1-11111-1-111-1-111-1-111-1-111-1-1-1-111-1-111-1-111-1-101-1-11111-1-111-1-111-1-111-1-111-1-1-1-111-1-111-1-111-1-111-1-11111-1-111-1-111
11-1-111-1-11111-1-111-1-111-1-111-1-111-1-1-1-111-1-111-1-111-1-110-1-11111-1-111-1-111-1-111-1-111-1-1-1-111-1-111-1-111-1-111-1-11111-1-111-1-111
-1-111-1-111-1-1-1-111-1-111-1-111-1-111-1-11111-1-111-1-111-1-111-1-101-1-1-1-111-1-111-1-111-1-111-1-11111-1-111-1-111-1-111-1-111-1-1-1-111-1-111-1-1
-1-111-1-111-1-1-1-111-1-111-1-111-1-111-1-11111-1-111-1-111-1-111-1-110-1-1-1-111-1-111-1-111-1-111-1-11111-1-111-1-111-1-111-1-111-1-1-1-111-1-111-1-1
11-1-111-1-11111-1-111-1-111-1-111-1-111-1-1-1-111-1-111-1-111-1-111-1-10111-1-111-1-111-1-111-1-111-1-1-1-111-1-111-1-111-1-111-1-11111-1-111-1-111
11-1-111-1-11111-1-111-1-111-1-111-1-111-1-1-1-111-1-111-1-111-1-111-1-11011-1-111-1-111-1-111-1-111-1-1-1-111-1-111-1-111-1-111-1-11111-1-111-1-111
11-1-111-1-11111-1-111-1-111-1-111-1-111-1-1-1-111-1-111-1-111-1-111-1-11101-1-111-1-111-1-111-1-111-1-1-1-111-1-111-1-111-1-111-1-11111-1-111-1-111
11-1-111-1-11111-1-111-1-111-1-111-1-111-1-1-1-111-1-111-1-111-1-111-1-11110-1-111-1-111-1-111-1-111-1-1-1-111-1-111-1-111-1-111-1-11111-1-111-1-111
-1-111-1-111-1-1-1-111-1-111-1-111-1-111-1-11111-1-111-1-111-1-111-1-111-1-1-1-101-1-111-1-111-1-111-1-11111-1-111-1-111-1-111-1-111-1-1-1-111-1-111-1-1
-1-111-1-111-1-1-1-111-1-111-1-111-1-111-1-11111-1-111-1-111-1-111-1-111-1-1-1-110-1-111-1-111-1-111-1-11111-1-111-1-111-1-111-1-111-1-1-1-111-1-111-1-1
11-1-111-1-11111-1-111-1-111-1-111-1-111-1-1-1-111-1-111-1-111-1-111-1-11111-1-101-1-111-1-111-1-111-1-1-1-111-1-111-1-111-1-111-1-11111-1-111-1-111
11-1-111-1-11111-1-111-1-111-1-111-1-111-1-1-1-111-1-111-1-111-1-111-1-11111-1-110-1-111-1-111-1-111-1-1-1-111-1-111-1-111-1-111-1-11111-1-111-1-111
-1-111-1-111-1-1-1-111-1-111-1-111-1-111-1-11111-1-111-1-111-1-111-1-111-1-1-1-111-1-101-1-111-1-111-1-11111-1-111-1-111-1-111-1-111-1-1-1-111-1-111-1-1
-1-111-1-111-1-1-1-111-1-111-1-111-1-111-1-11111-1-111-1-111-1-111-1-111-1-1-1-111-1-110-1-111-1-111-1-11111-1-111-1-111-1-111-1-111-1-1-1-111-1-111-1-1
11-1-111-1-11111-1-111-1-111-1-111-1-111-1-1-1-111-1-111-1-111-1-111-1-11111-1-111-1-101-1-111-1-111-1-1-1-111-1-111-1-111-1-111-1-11111-1-111-1-111
11-1-111-1-11111-1-111-1-111-1-111-1-111-1-1-1-111-1-111-1-111-1-111-1-11111-1-111-1-110-1-111-1-111-1-1-1-111-1-111-1-111-1-111-1-11111-1-111-1-111
-1-111-1-111-1-1-1-111-1-111-1-111-1-111-1-11111-1-111-1-111-1-111-1-111-1-1-1-111-1-111-1-101-1-111-1-11111-1-111-1-111-1-111-1-111-1-1-1-111-1-111-1-1
-1-111-1-111-1-1-1-111-1-111-1-111-1-111-1-11111-1-111-1-111-1-111-1-111-1-1-1-111-1-111-1-110-1-111-1-11111-1-111-1-111-1-111-1-111-1-1-1-111-1-111-1-1
11-1-111-1-11111-1-111-1-111-1-111-1-111-1-1-1-111-1-111-1-111-1-111-1-11111-1-111-1-111-1-101-1-111-1-1-1-111-1-111-1-111-1-111-1-11111-1-111-1-111
11-1-111-1-11111-1-111-1-111-1-111-1-111-1-1-1-111-1-111-1-111-1-111-1-11111-1-111-1-111-1-110-1-111-1-1-1-111-1-111-1-111-1-111-1-11111-1-111-1-111
-1-111-1-111-1-1-1-111-1-111-1-111-1-111-1-11111-1-111-1-111-1-111-1-111-1-1-1-111-1-111-1-111-1-101-1-11111-1-111-1-111-1-111-1-111-1-1-1-111-1-111-1-1
-1-111-1-111-1-1-1-111-1-111-1-111-1-111-1-11111-1-111-1-111-1-111-1-111-1-1-1-111-1-111-1-111-1-110-1-11111-1-111-1-111-1-111-1-111-1-1-1-111-1-111-1-1
11-1-111-1-11111-1-111-1-111-1-111-1-111-1-1-1-111-1-111-1-111-1-111-1-11111-1-111-1-111-1-111-1-101-1-1-1-111-1-111-1-111-1-111-1-11111-1-111-1-111
11-1-111-1-11111-1-111-1-111-1-111-1-111-1-1-1-111-1-111-1-111-1-111-1-11111-1-111-1-111-1-111-1-110-1-1-1-111-1-111-1-111-1-111-1-11111-1-111-1-111
-1-111-1-111-1-1-1-111-1-111-1-111-1-111-1-11111-1-111-1-111-1-111-1-111-1-1-1-111-1-111-1-111-1-111-1-10111-1-111-1-111-1-111-1-111-1-1-1-111-1-111-1-1
-1-111-1-111-1-1-1-111-1-111-1-111-1-111-1-11111-1-111-1-111-1-111-1-111-1-1-1-111-1-111-1-111-1-111-1-11011-1-111-1-111-1-111-1-111-1-1-1-111-1-111-1-1
-1-111-1-111-1-1-1-111-1-111-1-111-1-111-1-11111-1-111-1-111-1-111-1-111-1-1-1-111-1-111-1-111-1-111-1-11101-1-111-1-111-1-111-1-111-1-1-1-111-1-111-1-1
-1-111-1-111-1-1-1-111-1-111-1-111-1-111-1-11111-1-111-1-111-1-111-1-111-1-1-1-111-1-111-1-111-1-111-1-11110-1-111-1-111-1-111-1-111-1-1-1-111-1-111-1-1
11-1-111-1-11111-1-111-1-111-1-111-1-111-1-1-1-111-1-111-1-111-1-111-1-11111-1-111-1-111-1-111-1-111-1-1-1-101-1-111-1-111-1-111-1-11111-1-111-1-111
11-1-111-1-11111-1-111-1-111-1-111-1-111-1-1-1-111-1-111-1-111-1-111-1-11111-1-111-1-111-1-111-1-111-1-1-1-110-1-111-1-111-1-111-1-11111-1-111-1-111
-1-111-1-111-1-1-1-111-1-111-1-111-1-111-1-11111-1-111-1-111-1-111-1-111-1-1-1-111-1-111-1-111-1-111-1-11111-1-101-1-111-1-111-1-111-1-1-1-111-1-111-1-1
-1-111-1-111-1-1-1-111-1-111-1-111-1-111-1-11111-1-111-1-111-1-111-1-111-1-1-1-111-1-111-1-111-1-111-1-11111-1-110-1-111-1-111-1-111-1-1-1-111-1-111-1-1
11-1-111-1-11111-1-111-1-111-1-111-1-111-1-1-1-111-1-111-1-111-1-111-1-11111-1-111-1-111-1-111-1-111-1-1-1-111-1-101-1-111-1-111-1-11111-1-111-1-111
11-1-111-1-11111-1-111-1-111-1-111-1-111-1-1-1-111-1-111-1-111-1-111-1-11111-1-111-1-111-1-111-1-111-1-1-1-111-1-110-1-111-1-111-1-11111-1-111-1-111
-1-111-1-111-1-1-1-111-1-111-1-111-1-111-1-11111-1-111-1-111-1-111-1-111-1-1-1-111-1-111-1-111-1-111-1-11111-1-111-1-101-1-111-1-111-1-1-1-111-1-111-1-1
-1-111-1-111-1-1-1-111-1-111-1-111-1-111-1-11111-1-111-1-111-1-111-1-111-1-1-1-111-1-111-1-111-1-111-1-11111-1-111-1-110-1-111-1-111-1-1-1-111-1-111-1-1
11-1-111-1-11111-1-111-1-111-1-111-1-111-1-1-1-111-1-111-1-111-1-111-1-11111-1-111-1-111-1-111-1-111-1-1-1-111-1-111-1-101-1-111-1-11111-1-111-1-111
11-1-111-1-11111-1-111-1-111-1-111-1-111-1-1-1-111-1-111-1-111-1-111-1-11111-1-111-1-111-1-111-1-111-1-1-1-111-1-111-1-110-1-111-1-11111-1-111-1-111
-1-111-1-111-1-1-1-111-1-111-1-111-1-111-1-11111-1-111-1-111-1-111-1-111-1-1-1-111-1-111-1-111-1-111-1-11111-1-111-1-111-1-101-1-111-1-1-1-111-1-111-1-1
-1-111-1-111-1-1-1-111-1-111-1-111-1-111-1-11111-1-111-1-111-1-111-1-111-1-1-1-111-1-111-1-111-1-111-1-11111-1-111-1-111-1-110-1-111-1-1-1-111-1-111-1-1
11-1-111-1-11111-1-111-1-111-1-111-1-111-1-1-1-111-1-111-1-111-1-111-1-11111-1-111-1-111-1-111-1-111-1-1-1-111-1-111-1-111-1-101-1-11111-1-111-1-111
11-1-111-1-11111-1-111-1-111-1-111-1-111-1-1-1-111-1-111-1-111-1-111-1-11111-1-111-1-111-1-111-1-111-1-1-1-111-1-111-1-111-1-110-1-11111-1-111-1-111
-1-111-1-111-1-1-1-111-1-111-1-111-1-111-1-11111-1-111-1-111-1-111-1-111-1-1-1-111-1-111-1-111-1-111-1-11111-1-111-1-111-1-111-1-101-1-1-1-111-1-111-1-1
-1-111-1-111-1-1-1-111-1-111-1-111-1-111-1-11111-1-111-1-111-1-111-1-111-1-1-1-111-1-111-1-111-1-111-1-11111-1-111-1-111-1-111-1-110-1-1-1-111-1-111-1-1
11-1-111-1-11111-1-111-1-111-1-111-1-111-1-1-1-111-1-111-1-111-1-111-1-11111-1-111-1-111-1-111-1-111-1-1-1-111-1-111-1-111-1-111-1-10111-1-111-1-111
11-1-111-1-11111-1-111-1-111-1-111-1-111-1-1-1-111-1-111-1-111-1-111-1-11111-1-111-1-111-1-111-1-111-1-1-1-111-1-111-1-111-1-111-1-11011-1-111-1-111
11-1-111-1-11111-1-111-1-111-1-111-1-111-1-1-1-111-1-111-1-111-1-111-1-11111-1-111-1-111-1-111-1-111-1-1-1-111-1-111-1-111-1-111-1-11101-1-111-1-111
11-1-111-1-11111-1-111-1-111-1-111-1-111-1-1-1-111-1-111-1-111-1-111-1-11111-1-111-1-111-1-111-1-111-1-1-1-111-1-111-1-111-1-111-1-11110-1-111-1-111
-1-111-1-111-1-1-1-111-1-111-1-111-1-111-1-11111-1-111-1-111-1-111-1-111-1-1-1-111-1-111-1-111-1-111-1-11111-1-111-1-111-1-111-1-111-1-1-1-101-1-111-1-1
-1-111-1-111-1-1-1-111-1-111-1-111-1-111-1-11111-1-111-1-111-1-111-1-111-1-1-1-111-1-111-1-111-1-111-1-11111-1-111-1-111-1-111-1-111-1-1-1-110-1-111-1-1
11-1-111-1-11111-1-111-1-111-1-111-1-111-1-1-1-111-1-111-1-111-1-111-1-11111-1-111-1-111-1-111-1-111-1-1-1-111-1-111-1-111-1-111-1-11111-1-101-1-111
11-1-111-1-11111-1-111-1-111-1-111-1-111-1-1-1-111-1-111-1-111-1-111-1-11111-1-111-1-111-1-111-1-111-1-1-1-111-1-111-1-111-1-111-1-11111-1-110-1-111
-1-111-1-111-1-1-1-111-1-111-1-111-1-111-1-11111-1-111-1-111-1-111-1-111-1-1-1-111-1-111-1-111-1-111-1-11111-1-111-1-111-1-111-1-111-1-1-1-111-1-101-1-1
-1-111-1-111-1-1-1-111-1-111-1-111-1-111-1-11111-1-111-1-111-1-111-1-111-1-1-1-111-1-111-1-111-1-111-1-11111-1-111-1-111-1-111-1-111-1-1-1-111-1-110-1-1
11-1-111-1-11111-1-111-1-111-1-111-1-111-1-1-1-111-1-111-1-111-1-111-1-11111-1-111-1-111-1-111-1-111-1-1-1-111-1-111-1-111-1-111-1-11111-1-111-1-101
11-1-111-1-11111-1-111-1-111-1-111-1-111-1-1-1-111-1-111-1-111-1-111-1-11111-1-111-1-111-1-111-1-111-1-1-1-111-1-111-1-111-1-111-1-11111-1-111-1-110
